digraph Tree {
node [shape=box, style="filled, rounded", color="black", fontname=helvetica] ;
edge [fontname=helvetica] ;
0 [label="ewretd <= -0.114\ngini = 0.493\nsamples = 2504\nvalue = [1395, 1109]\nclass = Down", fillcolor="#e5813934"] ;
1 [label="ewretd <= -0.125\ngini = 0.324\nsamples = 59\nvalue = [12, 47]\nclass = Up", fillcolor="#399de5be"] ;
0 -> 1 [labeldistance=2.5, labelangle=45, headlabel="True"] ;
2 [label="SICCD <= 3676.5\ngini = 0.444\nsamples = 36\nvalue = [12, 24]\nclass = Up", fillcolor="#399de57f"] ;
1 -> 2 ;
3 [label="PRC <= 16.485\ngini = 0.208\nsamples = 17\nvalue = [2, 15]\nclass = Up", fillcolor="#399de5dd"] ;
2 -> 3 ;
4 [label="gini = 0.0\nsamples = 1\nvalue = [1, 0]\nclass = Down", fillcolor="#e58139ff"] ;
3 -> 4 ;
5 [label="gini = 0.117\nsamples = 16\nvalue = [1, 15]\nclass = Up", fillcolor="#399de5ee"] ;
3 -> 5 ;
6 [label="SICCD <= 5676.0\ngini = 0.499\nsamples = 19\nvalue = [10, 9]\nclass = Down", fillcolor="#e5813919"] ;
2 -> 6 ;
7 [label="gini = 0.346\nsamples = 9\nvalue = [7, 2]\nclass = Down", fillcolor="#e58139b6"] ;
6 -> 7 ;
8 [label="gini = 0.42\nsamples = 10\nvalue = [3, 7]\nclass = Up", fillcolor="#399de592"] ;
6 -> 8 ;
9 [label="gini = 0.0\nsamples = 23\nvalue = [0, 23]\nclass = Up", fillcolor="#399de5ff"] ;
1 -> 9 ;
10 [label="ewretd <= -0.094\ngini = 0.491\nsamples = 2445\nvalue = [1383, 1062]\nclass = Down", fillcolor="#e581393b"] ;
0 -> 10 [labeldistance=2.5, labelangle=-45, headlabel="False"] ;
11 [label="SHROUT <= 477329.5\ngini = 0.05\nsamples = 39\nvalue = [38, 1]\nclass = Down", fillcolor="#e58139f8"] ;
10 -> 11 ;
12 [label="ewretd <= -0.104\ngini = 0.5\nsamples = 2\nvalue = [1, 1]\nclass = Down", fillcolor="#e5813900"] ;
11 -> 12 ;
13 [label="gini = 0.0\nsamples = 1\nvalue = [0, 1]\nclass = Up", fillcolor="#399de5ff"] ;
12 -> 13 ;
14 [label="gini = 0.0\nsamples = 1\nvalue = [1, 0]\nclass = Down", fillcolor="#e58139ff"] ;
12 -> 14 ;
15 [label="gini = 0.0\nsamples = 37\nvalue = [37, 0]\nclass = Down", fillcolor="#e58139ff"] ;
11 -> 15 ;
16 [label="ewretd <= -0.072\ngini = 0.493\nsamples = 2406\nvalue = [1345, 1061]\nclass = Down", fillcolor="#e5813936"] ;
10 -> 16 ;
17 [label="ewretd <= -0.082\ngini = 0.45\nsamples = 82\nvalue = [28, 54]\nclass = Up", fillcolor="#399de57b"] ;
16 -> 17 ;
18 [label="gini = 0.493\nsamples = 25\nvalue = [14, 11]\nclass = Down", fillcolor="#e5813937"] ;
17 -> 18 ;
19 [label="gini = 0.371\nsamples = 57\nvalue = [14, 43]\nclass = Up", fillcolor="#399de5ac"] ;
17 -> 19 ;
20 [label="ewretd <= -0.047\ngini = 0.491\nsamples = 2324\nvalue = [1317, 1007]\nclass = Down", fillcolor="#e581393c"] ;
16 -> 20 ;
21 [label="gini = 0.107\nsamples = 88\nvalue = [83, 5]\nclass = Down", fillcolor="#e58139f0"] ;
20 -> 21 ;
22 [label="gini = 0.495\nsamples = 2236\nvalue = [1234, 1002]\nclass = Down", fillcolor="#e5813930"] ;
20 -> 22 ;
}