digraph Tree {
node [shape=box, style="filled, rounded", color="black", fontname=helvetica] ;
edge [fontname=helvetica] ;
0 [label="ewretd <= -0.114\ngini = 0.493\nsamples = 2497\nvalue = [1392, 1105]\nclass = Down", fillcolor="#e5813935"] ;
1 [label="lt_ppent <= 1.665\ngini = 0.303\nsamples = 59\nvalue = [11, 48]\nclass = Up", fillcolor="#399de5c5"] ;
0 -> 1 [labeldistance=2.5, labelangle=45, headlabel="True"] ;
2 [label="gini = 0.497\nsamples = 13\nvalue = [6, 7]\nclass = Up", fillcolor="#399de524"] ;
1 -> 2 ;
3 [label="VOL <= 2407548.5\ngini = 0.194\nsamples = 46\nvalue = [5, 41]\nclass = Up", fillcolor="#399de5e0"] ;
1 -> 3 ;
4 [label="gini = 0.444\nsamples = 12\nvalue = [4, 8]\nclass = Up", fillcolor="#399de57f"] ;
3 -> 4 ;
5 [label="PEG_ltgforward <= 1.524\ngini = 0.057\nsamples = 34\nvalue = [1, 33]\nclass = Up", fillcolor="#399de5f7"] ;
3 -> 5 ;
6 [label="gini = 0.0\nsamples = 24\nvalue = [0, 24]\nclass = Up", fillcolor="#399de5ff"] ;
5 -> 6 ;
7 [label="gini = 0.18\nsamples = 10\nvalue = [1, 9]\nclass = Up", fillcolor="#399de5e3"] ;
5 -> 7 ;
8 [label="ewretd <= -0.094\ngini = 0.491\nsamples = 2438\nvalue = [1381, 1057]\nclass = Down", fillcolor="#e581393c"] ;
0 -> 8 [labeldistance=2.5, labelangle=-45, headlabel="False"] ;
9 [label="adv_sale <= 0.03\ngini = 0.051\nsamples = 38\nvalue = [37, 1]\nclass = Down", fillcolor="#e58139f8"] ;
8 -> 9 ;
10 [label="gini = 0.0\nsamples = 28\nvalue = [28, 0]\nclass = Down", fillcolor="#e58139ff"] ;
9 -> 10 ;
11 [label="gini = 0.18\nsamples = 10\nvalue = [9, 1]\nclass = Down", fillcolor="#e58139e3"] ;
9 -> 11 ;
12 [label="delta <= -0.059\ngini = 0.493\nsamples = 2400\nvalue = [1344, 1056]\nclass = Down", fillcolor="#e5813937"] ;
8 -> 12 ;
13 [label="ewretd <= -0.063\ngini = 0.497\nsamples = 426\nvalue = [196, 230]\nclass = Up", fillcolor="#399de526"] ;
12 -> 13 ;
14 [label="BIDLO <= 26.56\ngini = 0.161\nsamples = 34\nvalue = [3, 31]\nclass = Up", fillcolor="#399de5e6"] ;
13 -> 14 ;
15 [label="gini = 0.42\nsamples = 10\nvalue = [3, 7]\nclass = Up", fillcolor="#399de592"] ;
14 -> 15 ;
16 [label="gini = 0.0\nsamples = 24\nvalue = [0, 24]\nclass = Up", fillcolor="#399de5ff"] ;
14 -> 16 ;
17 [label="ptpm <= 0.054\ngini = 0.5\nsamples = 392\nvalue = [193, 199]\nclass = Up", fillcolor="#399de508"] ;
13 -> 17 ;
18 [label="gini = 0.269\nsamples = 25\nvalue = [21, 4]\nclass = Down", fillcolor="#e58139ce"] ;
17 -> 18 ;
19 [label="gini = 0.498\nsamples = 367\nvalue = [172, 195]\nclass = Up", fillcolor="#399de51e"] ;
17 -> 19 ;
20 [label="ewretd <= -0.046\ngini = 0.487\nsamples = 1974\nvalue = [1148, 826]\nclass = Down", fillcolor="#e5813948"] ;
12 -> 20 ;
21 [label="ewretd <= -0.072\ngini = 0.364\nsamples = 138\nvalue = [105, 33]\nclass = Down", fillcolor="#e58139af"] ;
20 -> 21 ;
22 [label="gini = 0.5\nsamples = 51\nvalue = [25, 26]\nclass = Up", fillcolor="#399de50a"] ;
21 -> 22 ;
23 [label="gini = 0.148\nsamples = 87\nvalue = [80, 7]\nclass = Down", fillcolor="#e58139e9"] ;
21 -> 23 ;
24 [label="delta <= 0.167\ngini = 0.491\nsamples = 1836\nvalue = [1043, 793]\nclass = Down", fillcolor="#e581393d"] ;
20 -> 24 ;
25 [label="gini = 0.488\nsamples = 1784\nvalue = [1028, 756]\nclass = Down", fillcolor="#e5813943"] ;
24 -> 25 ;
26 [label="gini = 0.411\nsamples = 52\nvalue = [15, 37]\nclass = Up", fillcolor="#399de598"] ;
24 -> 26 ;
}